digraph Tree {
node [shape=box, style="filled, rounded", color="black", fontname="helvetica"] ;
edge [fontname="helvetica"] ;
0 [label="petal width (cm) <= 0.75\ngini = 0.67\nsamples = 95\nvalue = [53, 51, 46]\nclass = setosa", fillcolor="#fefcfb"] ;
1 [label="gini = 0.0\nsamples = 31\nvalue = [53, 0, 0]\nclass = setosa", fillcolor="#e58139"] ;
0 -> 1 [labeldistance=2.5, labelangle=45, headlabel="True"] ;
2 [label="petal width (cm) <= 1.75\ngini = 0.5\nsamples = 64\nvalue = [0, 51, 46]\nclass = versicolor", fillcolor="#ecfcf3"] ;
0 -> 2 [labeldistance=2.5, labelangle=-45, headlabel="False"] ;
3 [label="sepal length (cm) <= 4.95\ngini = 0.17\nsamples = 37\nvalue = [0, 50, 5]\nclass = versicolor", fillcolor="#4de88e"] ;
2 -> 3 ;
4 [label="gini = 0.0\nsamples = 1\nvalue = [0, 0, 2]\nclass = virginica", fillcolor="#8139e5"] ;
3 -> 4 ;
5 [label="petal length (cm) <= 5.35\ngini = 0.11\nsamples = 36\nvalue = [0, 50, 3]\nclass = versicolor", fillcolor="#45e789"] ;
3 -> 5 ;
6 [label="gini = 0.0\nsamples = 34\nvalue = [0, 50, 0]\nclass = versicolor", fillcolor="#39e581"] ;
5 -> 6 ;
7 [label="gini = 0.0\nsamples = 2\nvalue = [0, 0, 3]\nclass = virginica", fillcolor="#8139e5"] ;
5 -> 7 ;
8 [label="petal length (cm) <= 4.85\ngini = 0.05\nsamples = 27\nvalue = [0, 1, 41]\nclass = virginica", fillcolor="#843ee6"] ;
2 -> 8 ;
9 [label="sepal width (cm) <= 3.1\ngini = 0.38\nsamples = 3\nvalue = [0, 1, 3]\nclass = virginica", fillcolor="#ab7bee"] ;
8 -> 9 ;
10 [label="gini = 0.0\nsamples = 2\nvalue = [0, 0, 3]\nclass = virginica", fillcolor="#8139e5"] ;
9 -> 10 ;
11 [label="gini = 0.0\nsamples = 1\nvalue = [0, 1, 0]\nclass = versicolor", fillcolor="#39e581"] ;
9 -> 11 ;
12 [label="gini = 0.0\nsamples = 24\nvalue = [0, 0, 38]\nclass = virginica", fillcolor="#8139e5"] ;
8 -> 12 ;
}